<?xml version="1.0"?>
<opencv_storage>
<stage6>
  <maxWeakCount>17</maxWeakCount>
  <stageThreshold>-1.2047032117843628e+00</stageThreshold>
  <weakClassifiers>
    <_>
      <internalNodes>
        0 -1 3526 -8.1436231732368469e-02</internalNodes>
      <leafValues>
        5.6551724672317505e-01 -5.2357721328735352e-01</leafValues></_>
    <_>
      <internalNodes>
        0 -1 234806 5.2306368947029114e-02</internalNodes>
      <leafValues>
        -6.8628728389739990e-01 2.5613254308700562e-01</leafValues></_>
    <_>
      <internalNodes>
        0 -1 382075 4.5530684292316437e-03</internalNodes>
      <leafValues>
        -7.0643192529678345e-01 1.6185046732425690e-01</leafValues></_>
    <_>
      <internalNodes>
        0 -1 2054 -3.4429929219186306e-03</internalNodes>
      <leafValues>
        2.5107479095458984e-01 -6.1292839050292969e-01</leafValues></_>
    <_>
      <internalNodes>
        0 -1 219335 -9.5168203115463257e-03</internalNodes>
      <leafValues>
        3.6710843443870544e-01 -3.7948721647262573e-01</leafValues></_>
    <_>
      <internalNodes>
        0 -1 393439 1.7708126688376069e-04</internalNodes>
      <leafValues>
        -2.8582775592803955e-01 5.7514435052871704e-01</leafValues></_>
    <_>
      <internalNodes>
        0 -1 3689 -4.1275672614574432e-02</internalNodes>
      <leafValues>
        5.5766093730926514e-01 -2.0229342579841614e-01</leafValues></_>
    <_>
      <internalNodes>
        0 -1 373594 -1.7483163625001907e-02</internalNodes>
      <leafValues>
        7.6670318841934204e-01 -1.4481917023658752e-01</leafValues></_>
    <_>
      <internalNodes>
        0 -1 257711 2.6107375742867589e-04</internalNodes>
      <leafValues>
        2.2181466221809387e-01 -6.5755838155746460e-01</leafValues></_>
    <_>
      <internalNodes>
        0 -1 115851 2.7373421471565962e-03</internalNodes>
      <leafValues>
        -1.9785304367542267e-01 5.6538826227188110e-01</leafValues></_>
    <_>
      <internalNodes>
        0 -1 1834 -7.7289727050811052e-04</internalNodes>
      <leafValues>
        3.9844593405723572e-01 -2.5625517964363098e-01</leafValues></_>
    <_>
      <internalNodes>
        0 -1 378978 9.7498123068362474e-04</internalNodes>
      <leafValues>
        -6.5945476293563843e-01 1.3687300682067871e-01</leafValues></_>
    <_>
      <internalNodes>
        0 -1 384783 2.3078462108969688e-03</internalNodes>
      <leafValues>
        1.2760394811630249e-01 -8.0244189500808716e-01</leafValues></_>
    <_>
      <internalNodes>
        0 -1 24438 -4.3191403150558472e-02</internalNodes>
      <leafValues>
        1.5926462411880493e-01 -6.0629659891128540e-01</leafValues></_>
    <_>
      <internalNodes>
        0 -1 119183 -2.3277837783098221e-02</internalNodes>
      <leafValues>
        -4.1161063313484192e-01 2.4812342226505280e-01</leafValues></_>
    <_>
      <internalNodes>
        0 -1 184311 -3.3858741517178714e-05</internalNodes>
      <leafValues>
        1.5652710199356079e-01 -6.8847030401229858e-01</leafValues></_>
    <_>
      <internalNodes>
        0 -1 267090 1.7931242473423481e-04</internalNodes>
      <leafValues>
        -6.8629884719848633e-01 1.2291084229946136e-01</leafValues></_></weakClassifiers></stage6>
</opencv_storage>
