<?xml version="1.0"?>
<opencv_storage>
<stage6>
  <maxWeakCount>5</maxWeakCount>
  <stageThreshold>-6.5976101160049438e-01</stageThreshold>
  <weakClassifiers>
    <_>
      <internalNodes>
        0 -1 389097 -3.8263522583292797e-05</internalNodes>
      <leafValues>
        8.6206895112991333e-01 -5.6053811311721802e-01</leafValues></_>
    <_>
      <internalNodes>
        0 -1 46824 -6.1121943872421980e-04</internalNodes>
      <leafValues>
        6.7574888467788696e-01 -8.6470490694046021e-01</leafValues></_>
    <_>
      <internalNodes>
        0 -1 25709 1.9118200987577438e-02</internalNodes>
      <leafValues>
        -6.0451906919479370e-01 7.5223982334136963e-01</leafValues></_>
    <_>
      <internalNodes>
        0 -1 33683 -1.7049910093192011e-04</internalNodes>
      <leafValues>
        5.7097649574279785e-01 -7.4547225236892700e-01</leafValues></_>
    <_>
      <internalNodes>
        0 -1 344119 -2.9775095754303038e-05</internalNodes>
      <leafValues>
        7.6993590593338013e-01 -6.2358248233795166e-01</leafValues></_></weakClassifiers></stage6>
</opencv_storage>
