<?xml version="1.0"?>
<opencv_storage>
<cascade>
  <stageType>BOOST</stageType>
  <featureType>HAAR</featureType>
  <height>30</height>
  <width>30</width>
  <stageParams>
    <boostType>GAB</boostType>
    <minHitRate>9.9500000476837158e-01</minHitRate>
    <maxFalseAlarm>5.0000000000000000e-01</maxFalseAlarm>
    <weightTrimRate>9.4999999999999996e-01</weightTrimRate>
    <maxDepth>1</maxDepth>
    <maxWeakCount>100</maxWeakCount></stageParams>
  <featureParams>
    <maxCatCount>0</maxCatCount>
    <featSize>1</featSize>
    <mode>BASIC</mode></featureParams>
  <stageNum>5</stageNum>
  <stages>
    <!-- stage 0 -->
    <_>
      <maxWeakCount>2</maxWeakCount>
      <stageThreshold>7.0295743644237518e-02</stageThreshold>
      <weakClassifiers>
        <_>
          <internalNodes>
            0 -1 1 -8.2565676420927048e-03</internalNodes>
          <leafValues>
            9.9462366104125977e-01 -9.0909093618392944e-01</leafValues></_>
        <_>
          <internalNodes>
            0 -1 12 3.0129022896289825e-02</internalNodes>
          <leafValues>
            -8.8279312849044800e-01 9.7938662767410278e-01</leafValues></_></weakClassifiers></_>
    <!-- stage 1 -->
    <_>
      <maxWeakCount>2</maxWeakCount>
      <stageThreshold>-1.7754636704921722e-02</stageThreshold>
      <weakClassifiers>
        <_>
          <internalNodes>
            0 -1 7 -1.3879887759685516e-01</internalNodes>
          <leafValues>
            -8.9528793096542358e-01 9.5250660181045532e-01</leafValues></_>
        <_>
          <internalNodes>
            0 -1 3 -4.1375141590833664e-02</internalNodes>
          <leafValues>
            8.7753331661224365e-01 -8.2207536697387695e-01</leafValues></_></weakClassifiers></_>
    <!-- stage 2 -->
    <_>
      <maxWeakCount>3</maxWeakCount>
      <stageThreshold>-7.5880295038223267e-01</stageThreshold>
      <weakClassifiers>
        <_>
          <internalNodes>
            0 -1 4 -3.0581057071685791e-01</internalNodes>
          <leafValues>
            -7.8787881135940552e-01 9.3010753393173218e-01</leafValues></_>
        <_>
          <internalNodes>
            0 -1 9 4.5143485069274902e-02</internalNodes>
          <leafValues>
            -7.9013282060623169e-01 9.0615200996398926e-01</leafValues></_>
        <_>
          <internalNodes>
            0 -1 13 6.9664455950260162e-03</internalNodes>
          <leafValues>
            -8.1201153993606567e-01 8.1920862197875977e-01</leafValues></_></weakClassifiers></_>
    <!-- stage 3 -->
    <_>
      <maxWeakCount>3</maxWeakCount>
      <stageThreshold>-5.2195388078689575e-01</stageThreshold>
      <weakClassifiers>
        <_>
          <internalNodes>
            0 -1 8 -3.4452587366104126e-02</internalNodes>
          <leafValues>
            9.0109890699386597e-01 -6.6990292072296143e-01</leafValues></_>
        <_>
          <internalNodes>
            0 -1 6 -2.7979004383087158e-01</internalNodes>
          <leafValues>
            -5.9521114826202393e-01 8.5508477687835693e-01</leafValues></_>
        <_>
          <internalNodes>
            0 -1 0 -2.0152837038040161e-02</internalNodes>
          <leafValues>
            8.0962616205215454e-01 -7.0713573694229126e-01</leafValues></_></weakClassifiers></_>
    <!-- stage 4 -->
    <_>
      <maxWeakCount>5</maxWeakCount>
      <stageThreshold>-8.1723850965499878e-01</stageThreshold>
      <weakClassifiers>
        <_>
          <internalNodes>
            0 -1 11 5.6459810584783554e-03</internalNodes>
          <leafValues>
            -6.5445023775100708e-01 8.3113455772399902e-01</leafValues></_>
        <_>
          <internalNodes>
            0 -1 14 2.0911049097776413e-02</internalNodes>
          <leafValues>
            -6.5606588125228882e-01 7.9333496093750000e-01</leafValues></_>
        <_>
          <internalNodes>
            0 -1 10 -6.4682224765419960e-03</internalNodes>
          <leafValues>
            7.3267668485641479e-01 -6.2511426210403442e-01</leafValues></_>
        <_>
          <internalNodes>
            0 -1 5 -2.5879329442977905e-01</internalNodes>
          <leafValues>
            -7.8609585762023926e-01 6.5603888034820557e-01</leafValues></_>
        <_>
          <internalNodes>
            0 -1 2 -8.9800162240862846e-03</internalNodes>
          <leafValues>
            4.6235299110412598e-01 -9.2913478612899780e-01</leafValues></_></weakClassifiers></_></stages>
  <features>
    <_>
      <rects>
        <_>
          0 9 4 10 -1.</_>
        <_>
          2 9 2 10 2.</_></rects>
      <tilted>0</tilted></_>
    <_>
      <rects>
        <_>
          0 10 4 13 -1.</_>
        <_>
          2 10 2 13 2.</_></rects>
      <tilted>0</tilted></_>
    <_>
      <rects>
        <_>
          0 11 6 5 -1.</_>
        <_>
          3 11 3 5 2.</_></rects>
      <tilted>0</tilted></_>
    <_>
      <rects>
        <_>
          0 11 6 15 -1.</_>
        <_>
          3 11 3 15 2.</_></rects>
      <tilted>0</tilted></_>
    <_>
      <rects>
        <_>
          3 8 19 18 -1.</_>
        <_>
          3 14 19 6 2.</_></rects>
      <tilted>0</tilted></_>
    <_>
      <rects>
        <_>
          4 2 15 21 -1.</_>
        <_>
          4 9 15 7 2.</_></rects>
      <tilted>0</tilted></_>
    <_>
      <rects>
        <_>
          4 7 21 19 -1.</_>
        <_>
          11 7 7 19 2.</_></rects>
      <tilted>0</tilted></_>
    <_>
      <rects>
        <_>
          4 18 18 7 -1.</_>
        <_>
          10 18 6 7 2.</_></rects>
      <tilted>0</tilted></_>
    <_>
      <rects>
        <_>
          8 0 21 6 -1.</_>
        <_>
          8 3 21 3 2.</_></rects>
      <tilted>0</tilted></_>
    <_>
      <rects>
        <_>
          8 24 17 6 -1.</_>
        <_>
          8 27 17 3 2.</_></rects>
      <tilted>0</tilted></_>
    <_>
      <rects>
        <_>
          9 0 2 8 -1.</_>
        <_>
          9 4 2 4 2.</_></rects>
      <tilted>0</tilted></_>
    <_>
      <rects>
        <_>
          13 26 3 4 -1.</_>
        <_>
          13 28 3 2 2.</_></rects>
      <tilted>0</tilted></_>
    <_>
      <rects>
        <_>
          24 7 6 19 -1.</_>
        <_>
          27 7 3 19 2.</_></rects>
      <tilted>0</tilted></_>
    <_>
      <rects>
        <_>
          26 9 4 8 -1.</_>
        <_>
          28 9 2 8 2.</_></rects>
      <tilted>0</tilted></_>
    <_>
      <rects>
        <_>
          26 10 4 11 -1.</_>
        <_>
          28 10 2 11 2.</_></rects>
      <tilted>0</tilted></_></features></cascade>
</opencv_storage>
