<?xml version="1.0"?>
<opencv_storage>
<cascade>
  <stageType>BOOST</stageType>
  <featureType>HAAR</featureType>
  <height>30</height>
  <width>30</width>
  <stageParams>
    <boostType>GAB</boostType>
    <minHitRate>9.9500000476837158e-01</minHitRate>
    <maxFalseAlarm>3.0000001192092896e-01</maxFalseAlarm>
    <weightTrimRate>9.4999999999999996e-01</weightTrimRate>
    <maxDepth>1</maxDepth>
    <maxWeakCount>100</maxWeakCount></stageParams>
  <featureParams>
    <maxCatCount>0</maxCatCount>
    <featSize>1</featSize>
    <mode>BASIC</mode></featureParams>
  <stageNum>7</stageNum>
  <stages>
    <!-- stage 0 -->
    <_>
      <maxWeakCount>2</maxWeakCount>
      <stageThreshold>-2.1829078905284405e-03</stageThreshold>
      <weakClassifiers>
        <_>
          <internalNodes>
            0 -1 2 -1.6832889989018440e-02</internalNodes>
          <leafValues>
            9.7609561681747437e-01 -9.6774190664291382e-01</leafValues></_>
        <_>
          <internalNodes>
            0 -1 7 -6.4866900444030762e-01</internalNodes>
          <leafValues>
            -9.5792955160140991e-01 9.6555900573730469e-01</leafValues></_></weakClassifiers></_>
    <!-- stage 1 -->
    <_>
      <maxWeakCount>2</maxWeakCount>
      <stageThreshold>1.7832385376095772e-02</stageThreshold>
      <weakClassifiers>
        <_>
          <internalNodes>
            0 -1 17 6.4363083802163601e-03</internalNodes>
          <leafValues>
            -9.4422310590744019e-01 9.7595191001892090e-01</leafValues></_>
        <_>
          <internalNodes>
            0 -1 26 3.8423225283622742e-02</internalNodes>
          <leafValues>
            -9.5185631513595581e-01 9.6205550432205200e-01</leafValues></_></weakClassifiers></_>
    <!-- stage 2 -->
    <_>
      <maxWeakCount>2</maxWeakCount>
      <stageThreshold>1.2078920006752014e-01</stageThreshold>
      <weakClassifiers>
        <_>
          <internalNodes>
            0 -1 13 -1.9724652171134949e-01</internalNodes>
          <leafValues>
            -7.2893774509429932e-01 9.4129979610443115e-01</leafValues></_>
        <_>
          <internalNodes>
            0 -1 9 -4.0506556630134583e-02</internalNodes>
          <leafValues>
            9.1175961494445801e-01 -8.2051056623458862e-01</leafValues></_></weakClassifiers></_>
    <!-- stage 3 -->
    <_>
      <maxWeakCount>4</maxWeakCount>
      <stageThreshold>-2.5404733419418335e-01</stageThreshold>
      <weakClassifiers>
        <_>
          <internalNodes>
            0 -1 1 -1.1655332520604134e-02</internalNodes>
          <leafValues>
            8.8142293691635132e-01 -8.0327868461608887e-01</leafValues></_>
        <_>
          <internalNodes>
            0 -1 11 -2.8500890731811523e-01</internalNodes>
          <leafValues>
            -7.8215557336807251e-01 8.0436742305755615e-01</leafValues></_>
        <_>
          <internalNodes>
            0 -1 15 4.4812433421611786e-02</internalNodes>
          <leafValues>
            -8.3751428127288818e-01 6.5728622674942017e-01</leafValues></_>
        <_>
          <internalNodes>
            0 -1 29 5.3689721971750259e-03</internalNodes>
          <leafValues>
            -9.1242235898971558e-01 5.8380395174026489e-01</leafValues></_></weakClassifiers></_>
    <!-- stage 4 -->
    <_>
      <maxWeakCount>6</maxWeakCount>
      <stageThreshold>-2.7675136923789978e-01</stageThreshold>
      <weakClassifiers>
        <_>
          <internalNodes>
            0 -1 5 -5.7846435811370611e-04</internalNodes>
          <leafValues>
            7.4637681245803833e-01 -8.1818181276321411e-01</leafValues></_>
        <_>
          <internalNodes>
            0 -1 28 1.1334210634231567e-02</internalNodes>
          <leafValues>
            -6.9544923305511475e-01 7.5572270154953003e-01</leafValues></_>
        <_>
          <internalNodes>
            0 -1 21 -6.9200024008750916e-03</internalNodes>
          <leafValues>
            7.0363789796829224e-01 -6.5240412950515747e-01</leafValues></_>
        <_>
          <internalNodes>
            0 -1 23 -4.1704148054122925e-02</internalNodes>
          <leafValues>
            -6.7204660177230835e-01 7.6482874155044556e-01</leafValues></_>
        <_>
          <internalNodes>
            0 -1 4 -2.1021084394305944e-03</internalNodes>
          <leafValues>
            4.5061269402503967e-01 -8.2973337173461914e-01</leafValues></_>
        <_>
          <internalNodes>
            0 -1 19 1.1276599019765854e-02</internalNodes>
          <leafValues>
            -5.7191544771194458e-01 5.8384990692138672e-01</leafValues></_></weakClassifiers></_>
    <!-- stage 5 -->
    <_>
      <maxWeakCount>6</maxWeakCount>
      <stageThreshold>-5.4134160280227661e-01</stageThreshold>
      <weakClassifiers>
        <_>
          <internalNodes>
            0 -1 24 5.9277296066284180e-02</internalNodes>
          <leafValues>
            -7.2307693958282471e-01 7.0450448989868164e-01</leafValues></_>
        <_>
          <internalNodes>
            0 -1 12 -1.8073441088199615e-01</internalNodes>
          <leafValues>
            -6.6581094264984131e-01 6.9882333278656006e-01</leafValues></_>
        <_>
          <internalNodes>
            0 -1 16 -1.0446922853589058e-02</internalNodes>
          <leafValues>
            7.2326427698135376e-01 -5.9942597150802612e-01</leafValues></_>
        <_>
          <internalNodes>
            0 -1 30 1.3909701257944107e-02</internalNodes>
          <leafValues>
            -7.6847809553146362e-01 5.3071051836013794e-01</leafValues></_>
        <_>
          <internalNodes>
            0 -1 20 1.0695712262531742e-04</internalNodes>
          <leafValues>
            -6.7716884613037109e-01 4.2047360539436340e-01</leafValues></_>
        <_>
          <internalNodes>
            0 -1 8 -4.5332932472229004e-01</internalNodes>
          <leafValues>
            -6.4626938104629517e-01 4.9578815698623657e-01</leafValues></_></weakClassifiers></_>
    <!-- stage 6 -->
    <_>
      <maxWeakCount>9</maxWeakCount>
      <stageThreshold>-5.4706197977066040e-01</stageThreshold>
      <weakClassifiers>
        <_>
          <internalNodes>
            0 -1 0 -3.2498851418495178e-02</internalNodes>
          <leafValues>
            7.2073924541473389e-01 -3.8403043150901794e-01</leafValues></_>
        <_>
          <internalNodes>
            0 -1 10 5.2637003362178802e-02</internalNodes>
          <leafValues>
            -7.6128304004669189e-01 4.1072455048561096e-01</leafValues></_>
        <_>
          <internalNodes>
            0 -1 22 -2.4144187569618225e-02</internalNodes>
          <leafValues>
            3.4779542684555054e-01 -7.2543472051620483e-01</leafValues></_>
        <_>
          <internalNodes>
            0 -1 18 -1.0532227158546448e-01</internalNodes>
          <leafValues>
            -6.2417185306549072e-01 5.8557337522506714e-01</leafValues></_>
        <_>
          <internalNodes>
            0 -1 27 6.7784316837787628e-02</internalNodes>
          <leafValues>
            -3.9742103219032288e-01 7.6836413145065308e-01</leafValues></_>
        <_>
          <internalNodes>
            0 -1 25 -9.5391413196921349e-04</internalNodes>
          <leafValues>
            2.4557843804359436e-01 -9.2168390750885010e-01</leafValues></_>
        <_>
          <internalNodes>
            0 -1 6 -9.9859625101089478e-02</internalNodes>
          <leafValues>
            -6.6241312026977539e-01 2.7955523133277893e-01</leafValues></_>
        <_>
          <internalNodes>
            0 -1 14 3.2943135011009872e-05</internalNodes>
          <leafValues>
            -6.5591722726821899e-01 3.3026632666587830e-01</leafValues></_>
        <_>
          <internalNodes>
            0 -1 3 -6.8714320659637451e-03</internalNodes>
          <leafValues>
            2.3082494735717773e-01 -8.8517183065414429e-01</leafValues></_></weakClassifiers></_></stages>
  <features>
    <_>
      <rects>
        <_>
          0 5 4 14 -1.</_>
        <_>
          2 5 2 14 2.</_></rects>
      <tilted>0</tilted></_>
    <_>
      <rects>
        <_>
          0 8 4 10 -1.</_>
        <_>
          2 8 2 10 2.</_></rects>
      <tilted>0</tilted></_>
    <_>
      <rects>
        <_>
          0 9 6 14 -1.</_>
        <_>
          3 9 3 14 2.</_></rects>
      <tilted>0</tilted></_>
    <_>
      <rects>
        <_>
          0 12 6 4 -1.</_>
        <_>
          3 12 3 4 2.</_></rects>
      <tilted>0</tilted></_>
    <_>
      <rects>
        <_>
          0 16 8 1 -1.</_>
        <_>
          4 16 4 1 2.</_></rects>
      <tilted>0</tilted></_>
    <_>
      <rects>
        <_>
          0 20 6 1 -1.</_>
        <_>
          3 20 3 1 2.</_></rects>
      <tilted>0</tilted></_>
    <_>
      <rects>
        <_>
          1 1 12 7 -1.</_>
        <_>
          5 1 4 7 2.</_></rects>
      <tilted>0</tilted></_>
    <_>
      <rects>
        <_>
          2 3 21 24 -1.</_>
        <_>
          9 3 7 24 2.</_></rects>
      <tilted>0</tilted></_>
    <_>
      <rects>
        <_>
          3 7 24 21 -1.</_>
        <_>
          11 7 8 21 2.</_></rects>
      <tilted>0</tilted></_>
    <_>
      <rects>
        <_>
          4 0 24 6 -1.</_>
        <_>
          4 3 24 3 2.</_></rects>
      <tilted>0</tilted></_>
    <_>
      <rects>
        <_>
          5 12 12 18 -1.</_>
        <_>
          5 21 12 9 2.</_></rects>
      <tilted>0</tilted></_>
    <_>
      <rects>
        <_>
          6 3 14 24 -1.</_>
        <_>
          6 11 14 8 2.</_></rects>
      <tilted>0</tilted></_>
    <_>
      <rects>
        <_>
          7 3 10 24 -1.</_>
        <_>
          7 11 10 8 2.</_></rects>
      <tilted>0</tilted></_>
    <_>
      <rects>
        <_>
          7 11 18 14 -1.</_>
        <_>
          13 11 6 14 2.</_></rects>
      <tilted>0</tilted></_>
    <_>
      <rects>
        <_>
          7 28 16 2 -1.</_>
        <_>
          7 29 16 1 2.</_></rects>
      <tilted>0</tilted></_>
    <_>
      <rects>
        <_>
          9 24 18 6 -1.</_>
        <_>
          9 27 18 3 2.</_></rects>
      <tilted>0</tilted></_>
    <_>
      <rects>
        <_>
          10 0 6 4 -1.</_>
        <_>
          10 2 6 2 2.</_></rects>
      <tilted>0</tilted></_>
    <_>
      <rects>
        <_>
          10 26 11 4 -1.</_>
        <_>
          10 28 11 2 2.</_></rects>
      <tilted>0</tilted></_>
    <_>
      <rects>
        <_>
          11 1 5 27 -1.</_>
        <_>
          11 10 5 9 2.</_></rects>
      <tilted>0</tilted></_>
    <_>
      <rects>
        <_>
          12 26 3 4 -1.</_>
        <_>
          12 28 3 2 2.</_></rects>
      <tilted>0</tilted></_>
    <_>
      <rects>
        <_>
          12 27 5 2 -1.</_>
        <_>
          12 28 5 1 2.</_></rects>
      <tilted>0</tilted></_>
    <_>
      <rects>
        <_>
          14 0 3 6 -1.</_>
        <_>
          14 3 3 3 2.</_></rects>
      <tilted>0</tilted></_>
    <_>
      <rects>
        <_>
          14 0 8 8 -1.</_>
        <_>
          14 4 8 4 2.</_></rects>
      <tilted>0</tilted></_>
    <_>
      <rects>
        <_>
          14 3 3 24 -1.</_>
        <_>
          15 3 1 24 2.</_></rects>
      <tilted>0</tilted></_>
    <_>
      <rects>
        <_>
          15 8 14 22 -1.</_>
        <_>
          15 19 14 11 2.</_></rects>
      <tilted>0</tilted></_>
    <_>
      <rects>
        <_>
          18 1 3 24 -1.</_>
        <_>
          18 13 3 12 2.</_></rects>
      <tilted>0</tilted></_>
    <_>
      <rects>
        <_>
          22 0 8 28 -1.</_>
        <_>
          26 0 4 28 2.</_></rects>
      <tilted>0</tilted></_>
    <_>
      <rects>
        <_>
          26 3 4 23 -1.</_>
        <_>
          28 3 2 23 2.</_></rects>
      <tilted>0</tilted></_>
    <_>
      <rects>
        <_>
          26 9 4 7 -1.</_>
        <_>
          28 9 2 7 2.</_></rects>
      <tilted>0</tilted></_>
    <_>
      <rects>
        <_>
          26 9 4 10 -1.</_>
        <_>
          28 9 2 10 2.</_></rects>
      <tilted>0</tilted></_>
    <_>
      <rects>
        <_>
          26 11 4 9 -1.</_>
        <_>
          28 11 2 9 2.</_></rects>
      <tilted>0</tilted></_></features></cascade>
</opencv_storage>
