<?xml version="1.0"?>
<opencv_storage>
<stage6>
  <maxWeakCount>9</maxWeakCount>
  <stageThreshold>-5.4706197977066040e-01</stageThreshold>
  <weakClassifiers>
    <_>
      <internalNodes>
        0 -1 8095 -3.2498851418495178e-02</internalNodes>
      <leafValues>
        7.2073924541473389e-01 -3.8403043150901794e-01</leafValues></_>
    <_>
      <internalNodes>
        0 -1 134530 5.2637003362178802e-02</internalNodes>
      <leafValues>
        -7.6128304004669189e-01 4.1072455048561096e-01</leafValues></_>
    <_>
      <internalNodes>
        0 -1 282298 -2.4144187569618225e-02</internalNodes>
      <leafValues>
        3.4779542684555054e-01 -7.2543472051620483e-01</leafValues></_>
    <_>
      <internalNodes>
        0 -1 237303 -1.0532227158546448e-01</internalNodes>
      <leafValues>
        -6.2417185306549072e-01 5.8557337522506714e-01</leafValues></_>
    <_>
      <internalNodes>
        0 -1 388112 6.7784316837787628e-02</internalNodes>
      <leafValues>
        -3.9742103219032288e-01 7.6836413145065308e-01</leafValues></_>
    <_>
      <internalNodes>
        0 -1 331729 -9.5391413196921349e-04</internalNodes>
      <leafValues>
        2.4557843804359436e-01 -9.2168390750885010e-01</leafValues></_>
    <_>
      <internalNodes>
        0 -1 28042 -9.9859625101089478e-02</internalNodes>
      <leafValues>
        -6.6241312026977539e-01 2.7955523133277893e-01</leafValues></_>
    <_>
      <internalNodes>
        0 -1 181794 3.2943135011009872e-05</internalNodes>
      <leafValues>
        -6.5591722726821899e-01 3.3026632666587830e-01</leafValues></_>
    <_>
      <internalNodes>
        0 -1 16785 -6.8714320659637451e-03</internalNodes>
      <leafValues>
        2.3082494735717773e-01 -8.8517183065414429e-01</leafValues></_></weakClassifiers></stage6>
</opencv_storage>
