<?xml version="1.0"?>
<opencv_storage>
<stage4>
  <maxWeakCount>6</maxWeakCount>
  <stageThreshold>-2.7675136923789978e-01</stageThreshold>
  <weakClassifiers>
    <_>
      <internalNodes>
        0 -1 23216 -5.7846435811370611e-04</internalNodes>
      <leafValues>
        7.4637681245803833e-01 -8.1818181276321411e-01</leafValues></_>
    <_>
      <internalNodes>
        0 -1 389120 1.1334210634231567e-02</internalNodes>
      <leafValues>
        -6.9544923305511475e-01 7.5572270154953003e-01</leafValues></_>
    <_>
      <internalNodes>
        0 -1 281856 -6.9200024008750916e-03</internalNodes>
      <leafValues>
        7.0363789796829224e-01 -6.5240412950515747e-01</leafValues></_>
    <_>
      <internalNodes>
        0 -1 284338 -4.1704148054122925e-02</internalNodes>
      <leafValues>
        -6.7204660177230835e-01 7.6482874155044556e-01</leafValues></_>
    <_>
      <internalNodes>
        0 -1 20508 -2.1021084394305944e-03</internalNodes>
      <leafValues>
        4.5061269402503967e-01 -8.2973337173461914e-01</leafValues></_>
    <_>
      <internalNodes>
        0 -1 267248 1.1276599019765854e-02</internalNodes>
      <leafValues>
        -5.7191544771194458e-01 5.8384990692138672e-01</leafValues></_></weakClassifiers></stage4>
</opencv_storage>
