<?xml version="1.0"?>
<opencv_storage>
<stage4>
  <maxWeakCount>5</maxWeakCount>
  <stageThreshold>-8.1723850965499878e-01</stageThreshold>
  <weakClassifiers>
    <_>
      <internalNodes>
        0 -1 281413 5.6459810584783554e-03</internalNodes>
      <leafValues>
        -6.5445023775100708e-01 8.3113455772399902e-01</leafValues></_>
    <_>
      <internalNodes>
        0 -1 389280 2.0911049097776413e-02</internalNodes>
      <leafValues>
        -6.5606588125228882e-01 7.9333496093750000e-01</leafValues></_>
    <_>
      <internalNodes>
        0 -1 200921 -6.4682224765419960e-03</internalNodes>
      <leafValues>
        7.3267668485641479e-01 -6.2511426210403442e-01</leafValues></_>
    <_>
      <internalNodes>
        0 -1 101994 -2.5879329442977905e-01</internalNodes>
      <leafValues>
        -7.8609585762023926e-01 6.5603888034820557e-01</leafValues></_>
    <_>
      <internalNodes>
        0 -1 15734 -8.9800162240862846e-03</internalNodes>
      <leafValues>
        4.6235299110412598e-01 -9.2913478612899780e-01</leafValues></_></weakClassifiers></stage4>
</opencv_storage>
